network vGammaStable9 {
}
variable X0{
type discrete [ 2 ] {0, 1};
}
variable X1{
type discrete [ 2 ] {0, 1};
}
variable X2{
type discrete [ 2 ] {0, 1};
}
variable X3{
type discrete [ 2 ] {0, 1};
}
variable X4{
type discrete [ 2 ] {0, 1};
}
variable X5{
type discrete [ 2 ] {0, 1};
}
variable X6{
type discrete [ 2 ] {0, 1};
}
variable X7{
type discrete [ 2 ] {0, 1};
}
probability ( X2 | X1, X0 ) {
( 0, 0 ) 0.99, 0.010000000000000009;
( 0, 1 ) 0.010000000000000009, 0.99;
( 1, 0 ) 0.010000000000000009, 0.99;
( 1, 1 ) 0.99, 0.010000000000000009;
}
probability ( X7 | X6 ) {
( 0 ) 0.99999999999936, 6.400000000000006e-13;
( 1 ) 6.336e-11, 0.99999999993664;
}
probability ( X1 | X0 ) {
( 0 ) 0.010000000000000009, 0.99;
( 1 ) 0.99, 0.010000000000000009;
}
probability ( X5 | X0, X1 ) {
( 0, 0 ) 0.99, 0.010000000000000009;
( 0, 1 ) 0.010000000000000009, 0.99;
( 1, 0 ) 0.010000000000000009, 0.99;
( 1, 1 ) 0.99, 0.010000000000000009;
}
probability ( X3 | X0, X1 ) {
( 0, 0 ) 0.99, 0.010000000000000009;
( 0, 1 ) 0.010000000000000009, 0.99;
( 1, 0 ) 0.010000000000000009, 0.99;
( 1, 1 ) 0.99, 0.010000000000000009;
}
probability ( X4 | X0, X2 ) {
( 0, 0 ) 0.99, 0.010000000000000009;
( 0, 1 ) 0.010000000000000009, 0.99;
( 1, 0 ) 0.010000000000000009, 0.99;
( 1, 1 ) 0.99, 0.010000000000000009;
}
probability ( X6 | X2, X3 ) {
( 0, 0 ) 0.99, 0.010000000000000009;
( 0, 1 ) 0.010000000000000009, 0.99;
( 1, 0 ) 0.010000000000000009, 0.99;
( 1, 1 ) 0.99, 0.010000000000000009;
}
probability ( X0 ){
table 0.99, 0.010000000000000009;
}
